<?xml version="1.0"?>
<opencv_storage>
<cascade>
  <stageType>BOOST</stageType>
  <featureType>HAAR</featureType>
  <height>24</height>
  <width>24</width>
  <stageParams>
    <boostType>GAB</boostType>
    <minHitRate>9.9500000476837158e-01</minHitRate>
    <maxFalseAlarm>5.0000000000000000e-01</maxFalseAlarm>
    <weightTrimRate>9.4999999999999996e-01</weightTrimRate>
    <maxDepth>1</maxDepth>
    <maxWeakCount>100</maxWeakCount></stageParams>
  <featureParams>
    <maxCatCount>0</maxCatCount>
    <featSize>1</featSize>
    <mode>BASIC</mode></featureParams>
  <stageNum>3</stageNum>
  <stages>
    <!-- stage 0 -->
    <_>
      <maxWeakCount>1</maxWeakCount>
      <stageThreshold>9.7821784019470215e-01</stageThreshold>
      <weakClassifiers>
        <_>
          <internalNodes>
            0 -1 4 -2.7854915708303452e-02</internalNodes>
          <leafValues>
            9.7821784019470215e-01 -9.9899494647979736e-01</leafValues></_></weakClassifiers></_>
    <!-- stage 1 -->
    <_>
      <maxWeakCount>3</maxWeakCount>
      <stageThreshold>-1.2766617536544800e+00</stageThreshold>
      <weakClassifiers>
        <_>
          <internalNodes>
            0 -1 1 5.6826461106538773e-02</internalNodes>
          <leafValues>
            -9.9102693796157837e-01 8.6363637447357178e-01</leafValues></_>
        <_>
          <internalNodes>
            0 -1 0 -2.8999641537666321e-02</internalNodes>
          <leafValues>
            8.3541822433471680e-01 -9.6688693761825562e-01</leafValues></_>
        <_>
          <internalNodes>
            0 -1 3 -7.1366131305694580e-03</internalNodes>
          <leafValues>
            6.8125212192535400e-01 -9.9351656436920166e-01</leafValues></_></weakClassifiers></_>
    <!-- stage 2 -->
    <_>
      <maxWeakCount>3</maxWeakCount>
      <stageThreshold>-1.3865839242935181e+00</stageThreshold>
      <weakClassifiers>
        <_>
          <internalNodes>
            0 -1 6 -4.7621518373489380e-02</internalNodes>
          <leafValues>
            8.1395345926284790e-01 -9.8903834819793701e-01</leafValues></_>
        <_>
          <internalNodes>
            0 -1 5 -3.5419389605522156e-02</internalNodes>
          <leafValues>
            5.2966332435607910e-01 -9.7842025756835938e-01</leafValues></_>
        <_>
          <internalNodes>
            0 -1 2 -2.0498660206794739e-01</internalNodes>
          <leafValues>
            5.8087468147277832e-01 -1.</leafValues></_></weakClassifiers></_></stages>
  <features>
    <_>
      <rects>
        <_>
          0 13 3 8 -1.</_>
        <_>
          1 13 1 8 3.</_></rects>
      <tilted>0</tilted></_>
    <_>
      <rects>
        <_>
          1 16 4 8 -1.</_>
        <_>
          3 16 2 8 2.</_></rects>
      <tilted>0</tilted></_>
    <_>
      <rects>
        <_>
          10 4 14 16 -1.</_>
        <_>
          17 4 7 16 2.</_></rects>
      <tilted>0</tilted></_>
    <_>
      <rects>
        <_>
          10 16 3 2 -1.</_>
        <_>
          10 17 3 1 2.</_></rects>
      <tilted>0</tilted></_>
    <_>
      <rects>
        <_>
          11 7 6 6 -1.</_>
        <_>
          11 7 3 3 2.</_>
        <_>
          14 10 3 3 2.</_></rects>
      <tilted>0</tilted></_>
    <_>
      <rects>
        <_>
          20 15 4 7 -1.</_>
        <_>
          22 15 2 7 2.</_></rects>
      <tilted>0</tilted></_>
    <_>
      <rects>
        <_>
          22 5 2 18 -1.</_>
        <_>
          23 5 1 18 2.</_></rects>
      <tilted>0</tilted></_></features></cascade>
</opencv_storage>
